{"learner":{"attributes":{"best_iteration":"54","best_score":"165352.46875"},"feature_names":["Lag_1","Lag_2","Lag_3","Rolling_Mean_3"],"feature_types":["float","float","float","float"],"gradient_booster":{"model":{"gbtree_model_param":{"num_parallel_tree":"1","num_trees":"65"},"iteration_indptr":[0,1,2,3,4,5,6,7,8,9,10,11,12,13,14,15,16,17,18,19,20,21,22,23,24,25,26,27,28,29,30,31,32,33,34,35,36,37,38,39,40,41,42,43,44,45,46,47,48,49,50,51,52,53,54,55,56,57,58,59,60,61,62,63,64,65],"tree_info":[0,0,0,0,0,0,0,0,0,0,0,0,0,0,0,0,0,0,0,0,0,0,0,0,0,0,0,0,0,0,0,0,0,0,0,0,0,0,0,0,0,0,0,0,0,0,0,0,0,0,0,0,0,0,0,0,0,0,0,0,0,0,0,0,0],"trees":[{"base_weights":[4.752952E4,-1.1551215E6,4.0484448E6,-7.381571E4,4.987277E5,5.2181957E4,2.220339E5,2.4456562E3,3.1618076E4],"categories":[],"categories_nodes":[],"categories_segments":[],"categories_sizes":[],"default_left":[0,0,0,0,0,0,0,0,0],"id":0,"left_children":[1,3,5,-1,7,-1,-1,-1,-1],"loss_changes":[1.2496906E14,1.1360367E13,2.4370416E12,0E0,2.0951099E11,0E0,0E0,0E0,0E0],"parents":[2147483647,0,0,1,1,2,2,4,4],"right_children":[2,4,6,-1,8,-1,-1,-1,-1],"split_conditions":[3.877984E6,1.935678E6,4.754295E6,-7.381571E4,2.764843E6,5.2181957E4,2.220339E5,2.4456562E3,3.1618076E4],"split_indices":[0,0,0,0,0,0,0,0,0],"split_type":[0,0,0,0,0,0,0,0,0],"sum_hessian":[2.4E1,1.9E1,5E0,1.6E1,3E0,1E0,4E0,1E0,2E0],"tree_param":{"num_deleted":"0","num_feature":"4","num_nodes":"9","size_leaf_vector":"1"}},{"base_weights":[1.9206211E5,-1.0634018E6,3.7516642E6,-7.120289E4,3.033777E5,5.0877406E4,2.0188795E5,-1.05653336E5,3.056414E4,-1.0308513E4,2.3845125E3],"categories":[],"categories_nodes":[],"categories_segments":[],"categories_sizes":[],"default_left":[0,0,0,0,0,0,0,0,0,0,0],"id":1,"left_children":[1,3,5,-1,7,-1,-1,9,-1,-1,-1],"loss_changes":[1.2018226E14,1.0290773E13,1.3668985E12,0E0,6.942978E11,0E0,0E0,5.6073183E10,0E0,0E0,0E0],"parents":[2147483647,0,0,1,1,2,2,4,4,7,7],"right_children":[2,4,6,-1,8,-1,-1,10,-1,-1,-1],"split_conditions":[3.353134E6,1.527953E6,3.877984E6,-7.120289E4,2.257122E6,5.0877406E4,2.0188795E5,1.935678E6,3.056414E4,-1.0308513E4,2.3845125E3],"split_indices":[1,1,1,0,1,0,0,1,0,0,0],"split_type":[0,0,0,0,0,0,0,0,0,0,0],"sum_hessian":[2.5E1,1.9E1,6E0,1.5E1,4E0,1E0,5E0,2E0,2E0,1E0,1E0],"tree_param":{"num_deleted":"0","num_feature":"4","num_nodes":"11","size_leaf_vector":"1"}},{"base_weights":[-2.1516055E5,-1.0698308E6,1.8796773E5,-6.860471E4,2.927368E5,-1.03012E5,2.9545334E4,-1.00508E4,2.3249001E3],"categories":[],"categories_nodes":[],"categories_segments":[],"categories_sizes":[],"default_left":[0,0,0,0,0,0,0,0,0],"id":2,"left_children":[1,3,-1,-1,5,7,-1,-1,-1],"loss_changes":[9.573816E13,9.874314E12,0E0,0E0,6.508723E11,5.3304582E10,0E0,0E0,0E0],"parents":[2147483647,0,0,1,1,4,4,5,5],"right_children":[2,4,-1,-1,6,8,-1,-1,-1],"split_conditions":[3.877984E6,1.935678E6,1.8796773E5,-6.860471E4,2.764843E6,2.257122E6,2.9545334E4,-1.00508E4,2.3249001E3],"split_indices":[0,0,0,0,0,0,0,0,0],"split_type":[0,0,0,0,0,0,0,0,0],"sum_hessian":[2.6E1,2.2E1,4E0,1.8E1,4E0,2E0,2E0,1E0,1E0],"tree_param":{"num_deleted":"0","num_feature":"4","num_nodes":"9","size_leaf_vector":"1"}},{"base_weights":[1.2377547E5,-1.0654671E6,1.9345405E5,-6.417798E4,7.3269875E4,-9.799531E3,2.2835358E5,2.2667751E3,1.4859744E4],"categories":[],"categories_nodes":[],"categories_segments":[],"categories_sizes":[],"default_left":[0,0,0,0,0,0,0,0,0],"id":3,"left_children":[1,3,-1,-1,5,-1,7,-1,-1],"loss_changes":[1.11020215E14,4.8126975E12,0E0,0E0,2.1178684E11,0E0,2.4324112E10,0E0,0E0],"parents":[2147483647,0,0,1,1,4,4,6,6],"right_children":[2,4,-1,-1,6,-1,8,-1,-1],"split_conditions":[3.353134E6,1.330538E6,1.9345405E5,-6.417798E4,2.257122E6,-9.799531E3,2.764843E6,2.2667751E3,1.4859744E4],"split_indices":[0,0,0,0,0,0,0,0,0],"split_type":[0,0,0,0,0,0,0,0,0],"sum_hessian":[2.3E1,1.8E1,5E0,1.5E1,3E0,1E0,2E0,1E0,1E0],"tree_param":{"num_deleted":"0","num_feature":"4","num_nodes":"9","size_leaf_vector":"1"}},{"base_weights":[-2.0109483E5,-1.0731736E6,2.6930348E6,-6.2421863E4,7.1438125E4,4.2143047E4,1.6322661E5,-9.554544E3,2.2264475E5,2.2101062E3,1.448825E4],"categories":[],"categories_nodes":[],"categories_segments":[],"categories_sizes":[],"default_left":[0,0,0,0,0,0,0,0,0,0,0],"id":4,"left_children":[1,3,5,-1,7,-1,-1,-1,9,-1,-1],"loss_changes":[7.608346E13,4.7031884E12,4.6500445E12,0E0,2.0132985E11,0E0,0E0,0E0,2.3123116E10,0E0,0E0],"parents":[2147483647,0,0,1,1,2,2,4,4,8,8],"right_children":[2,4,6,-1,8,-1,-1,-1,10,-1,-1],"split_conditions":[2.764843E6,1.527953E6,3.877984E6,-6.2421863E4,1.935678E6,4.2143047E4,1.6322661E5,-9.554544E3,2.257122E6,2.2101062E3,1.448825E4],"split_indices":[1,1,1,0,1,0,0,0,1,0,0],"split_type":[0,0,0,0,0,0,0,0,0,0,0],"sum_hessian":[2.8E1,2.2E1,6E0,1.9E1,3E0,2E0,4E0,1E0,2E0,1E0,1E0],"tree_param":{"num_deleted":"0","num_feature":"4","num_nodes":"11","size_leaf_vector":"1"}},{"base_weights":[6.7468484E4,-9.166095E5,3.1506468E6,-5.92435E4,2.324503E5,6.209028E4,1.8329111E5,-9.5477664E4,2.4144742E4,-9.315682E3,2.1548562E3],"categories":[],"categories_nodes":[],"categories_segments":[],"categories_sizes":[],"default_left":[0,0,0,0,0,0,0,0,0,0,0],"id":5,"left_children":[1,3,5,-1,7,-1,-1,9,-1,-1,-1],"loss_changes":[8.784237E13,7.056864E12,2.3314752E12,0E0,4.5674453E11,0E0,0E0,4.5792313E10,0E0,0E0,0E0],"parents":[2147483647,0,0,1,1,2,2,4,4,7,7],"right_children":[2,4,6,-1,8,-1,-1,10,-1,-1,-1],"split_conditions":[3.353134E6,1.527953E6,4.754295E6,-5.92435E4,2.257122E6,6.209028E4,1.8329111E5,1.935678E6,2.4144742E4,-9.315682E3,2.1548562E3],"split_indices":[1,1,1,0,1,0,0,1,0,0,0],"split_type":[0,0,0,0,0,0,0,0,0,0,0],"sum_hessian":[2.7E1,2.1E1,6E0,1.7E1,4E0,2E0,4E0,2E0,2E0,1E0,1E0],"tree_param":{"num_deleted":"0","num_feature":"4","num_nodes":"11","size_leaf_vector":"1"}},{"base_weights":[3.4957242E4,-8.98691E5,1.6155216E5,-5.672427E4,2.242246E5,-9.3090664E4,2.3339918E4,-9.082788E3,2.1009875E3],"categories":[],"categories_nodes":[],"categories_segments":[],"categories_sizes":[],"default_left":[0,0,0,0,0,0,0,0,0],"id":6,"left_children":[1,3,-1,-1,5,7,-1,-1,-1],"loss_changes":[9.24243E13,6.60903E12,0E0,0E0,4.2831633E11,4.353133E10,0E0,0E0,0E0],"parents":[2147483647,0,0,1,1,4,4,5,5],"right_children":[2,4,-1,-1,6,8,-1,-1,-1],"split_conditions":[3.353134E6,1.527953E6,1.6155216E5,-5.672427E4,2.257122E6,1.935678E6,2.3339918E4,-9.082788E3,2.1009875E3],"split_indices":[1,1,0,0,1,1,0,0,0],"split_type":[0,0,0,0,0,0,0,0,0],"sum_hessian":[2.9E1,2.3E1,6E0,1.9E1,4E0,2E0,2E0,1E0,1E0],"tree_param":{"num_deleted":"0","num_feature":"4","num_nodes":"9","size_leaf_vector":"1"}},{"base_weights":[-2.663569E4,-9.079287E5,2.3692505E6,-5.2500414E4,1.9983183E5,3.6219492E4,1.4411584E5,2.0484626E3,1.2938925E4],"categories":[],"categories_nodes":[],"categories_segments":[],"categories_sizes":[],"default_left":[0,0,0,0,0,0,0,0,0],"id":7,"left_children":[1,3,5,-1,7,-1,-1,-1,-1],"loss_changes":[5.493805E13,3.200236E12,3.8195387E12,0E0,1.7491288E10,0E0,0E0,0E0,0E0],"parents":[2147483647,0,0,1,1,2,2,4,4],"right_children":[2,4,6,-1,8,-1,-1,-1,-1],"split_conditions":[3.353134E6,1.935678E6,4.754295E6,-5.2500414E4,2.764843E6,3.6219492E4,1.4411584E5,2.0484626E3,1.2938925E4],"split_indices":[0,0,0,0,0,0,0,0,0],"split_type":[0,0,0,0,0,0,0,0,0],"sum_hessian":[2.4E1,1.8E1,6E0,1.6E1,2E0,2E0,4E0,1E0,1E0],"tree_param":{"num_deleted":"0","num_feature":"4","num_nodes":"9","size_leaf_vector":"1"}},{"base_weights":[1.3551919E5,-9.7687294E5,2.7605105E6,-5.17791E4,1.99725E3,5.162995E4,1.5821906E5],"categories":[],"categories_nodes":[],"categories_segments":[],"categories_sizes":[],"default_left":[0,0,0,0,0,0,0],"id":8,"left_children":[1,3,5,-1,-1,-1,-1],"loss_changes":[7.861718E13,1.1756005E12,2.3152852E12,0E0,0E0,0E0,0E0],"parents":[2147483647,0,0,1,1,2,2],"right_children":[2,4,6,-1,-1,-1,-1],"split_conditions":[2.764843E6,1.935678E6,5.80035E6,-5.17791E4,1.99725E3,5.162995E4,1.5821906E5],"split_indices":[0,0,0,0,0,0,0],"split_type":[0,0,0,0,0,0,0],"sum_hessian":[2.5E1,1.8E1,7E0,1.7E1,1E0,2E0,5E0],"tree_param":{"num_deleted":"0","num_feature":"4","num_nodes":"7","size_leaf_vector":"1"}},{"base_weights":[1.9342133E5,-8.8209794E5,2.777765E6,-4.7104867E4,1.9473187E3,3.122905E4,1.5162661E5],"categories":[],"categories_nodes":[],"categories_segments":[],"categories_sizes":[],"default_left":[0,0,0,0,0,0,0],"id":9,"left_children":[1,3,5,-1,-1,-1,-1],"loss_changes":[6.6379026E13,9.7614666E11,1.9458593E12,0E0,0E0,0E0,0E0],"parents":[2147483647,0,0,1,1,2,2],"right_children":[2,4,6,-1,-1,-1,-1],"split_conditions":[2.764843E6,1.935678E6,4.754295E6,-4.7104867E4,1.9473187E3,3.122905E4,1.5162661E5],"split_indices":[0,0,0,0,0,0,0],"split_type":[0,0,0,0,0,0,0],"sum_hessian":[2.2E1,1.6E1,6E0,1.5E1,1E0,1E0,5E0],"tree_param":{"num_deleted":"0","num_feature":"4","num_nodes":"7","size_leaf_vector":"1"}},{"base_weights":[2.0618036E5,-6.8350594E5,2.718687E6,-8.755825E5,3.03696E5,3.98437E4,1.4530884E5,-4.538963E4,-9.005544E3,1.8986376E3,1.8980643E4],"categories":[],"categories_nodes":[],"categories_segments":[],"categories_sizes":[],"default_left":[0,0,0,0,0,0,0,0,0,0,0],"id":10,"left_children":[1,3,5,7,9,-1,-1,-1,-1,-1,-1],"loss_changes":[5.997715E13,4.0582785E12,2.0638492E11,2.1731633E11,6.627649E10,0E0,0E0,0E0,0E0,0E0,0E0],"parents":[2147483647,0,0,1,1,2,2,3,3,4,4],"right_children":[2,4,6,8,10,-1,-1,-1,-1,-1,-1],"split_conditions":[3.877984E6,2.257122E6,5.80035E6,1.935678E6,2.764843E6,3.98437E4,1.4530884E5,-4.538963E4,-9.005544E3,1.8986376E3,1.8980643E4],"split_indices":[0,0,0,0,0,0,0,0,0,0,0],"split_type":[0,0,0,0,0,0,0,0,0,0,0],"sum_hessian":[2.5E1,1.9E1,6E0,1.6E1,3E0,1E0,5E0,1.5E1,1E0,1E0,2E0],"tree_param":{"num_deleted":"0","num_feature":"4","num_nodes":"11","size_leaf_vector":"1"}},{"base_weights":[1.1366439E5,-6.9706856E5,2.4303138E6,-8.6037506E5,2.9373094E5,4.553323E4,1.392543E5,-4.528279E4,-1.5094968E4,1.8511688E3,1.8347951E4],"categories":[],"categories_nodes":[],"categories_segments":[],"categories_sizes":[],"default_left":[0,0,0,0,0,0,0,0,0,0,0],"id":11,"left_children":[1,3,5,7,9,-1,-1,-1,-1,-1,-1],"loss_changes":[5.8039617E13,3.974211E12,1.7767533E12,2.3234557E11,6.1606724E10,0E0,0E0,0E0,0E0,0E0,0E0],"parents":[2147483647,0,0,1,1,2,2,3,3,4,4],"right_children":[2,4,6,8,10,-1,-1,-1,-1,-1,-1],"split_conditions":[3.877984E6,2.257122E6,5.80035E6,1.330538E6,2.764843E6,4.553323E4,1.392543E5,-4.528279E4,-1.5094968E4,1.8511688E3,1.8347951E4],"split_indices":[0,0,0,2,0,0,0,0,0,0,0],"split_type":[0,0,0,0,0,0,0,0,0,0,0],"sum_hessian":[2.9E1,2.2E1,7E0,1.9E1,3E0,2E0,5E0,1.7E1,2E0,1E0,2E0],"tree_param":{"num_deleted":"0","num_feature":"4","num_nodes":"11","size_leaf_vector":"1"}},{"base_weights":[-3.4939836E4,-6.824975E5,1.3345203E5,-8.272189E5,2.8409412E5,-4.3308266E4,-1.45918E4,1.8048876E3,1.773635E4],"categories":[],"categories_nodes":[],"categories_segments":[],"categories_sizes":[],"default_left":[0,0,0,0,0,0,0,0,0],"id":12,"left_children":[1,3,-1,5,7,-1,-1,-1,-1],"loss_changes":[5.435111E13,3.7321672E12,0E0,2.0595081E11,5.726198E10,0E0,0E0,0E0,0E0],"parents":[2147483647,0,0,1,1,3,3,4,4],"right_children":[2,4,-1,6,8,-1,-1,-1,-1],"split_conditions":[3.877984E6,2.257122E6,1.3345203E5,1.330538E6,2.764843E6,-4.3308266E4,-1.45918E4,1.8048876E3,1.773635E4],"split_indices":[0,0,0,2,0,0,0,0,0],"split_type":[0,0,0,0,0,0,0,0,0],"sum_hessian":[2.9E1,2.4E1,5E0,2.1E1,3E0,1.9E1,2E0,1E0,2E0],"tree_param":{"num_deleted":"0","num_feature":"4","num_nodes":"9","size_leaf_vector":"1"}},{"base_weights":[5.1275957E4,-6.4299894E5,2.1267755E6,-7.6482556E5,1.7145143E4,3.956706E4,1.25134055E5,-3.9472656E4,-8.038238E3],"categories":[],"categories_nodes":[],"categories_segments":[],"categories_sizes":[],"default_left":[0,0,0,0,0,0,0,0,0],"id":13,"left_children":[1,3,5,7,-1,-1,-1,-1,-1],"loss_changes":[4.0273627E13,2.7845523E12,1.5335047E12,1.557387E11,0E0,0E0,0E0,0E0,0E0],"parents":[2147483647,0,0,1,1,2,2,3,3],"right_children":[2,4,6,8,-1,-1,-1,-1,-1],"split_conditions":[3.877984E6,2.257122E6,5.80035E6,1.935678E6,1.7145143E4,3.956706E4,1.25134055E5,-3.9472656E4,-8.038238E3],"split_indices":[0,0,0,0,0,0,0,0,0],"split_type":[0,0,0,0,0,0,0,0,0],"sum_hessian":[2.6E1,2E1,6E0,1.8E1,2E0,2E0,4E0,1.7E1,1E0],"tree_param":{"num_deleted":"0","num_feature":"4","num_nodes":"9","size_leaf_vector":"1"}},{"base_weights":[-1.1344584E3,-7.491629E5,1.8690785E6,-3.8604652E4,-7.8372812E3,3.6746984E4,1.2012869E5],"categories":[],"categories_nodes":[],"categories_segments":[],"categories_sizes":[],"default_left":[0,0,0,0,0,0,0],"id":14,"left_children":[1,3,5,-1,-1,-1,-1],"loss_changes":[3.91725E13,1.506615E11,3.0747142E12,0E0,0E0,0E0,0E0],"parents":[2147483647,0,0,1,1,2,2],"right_children":[2,4,6,-1,-1,-1,-1],"split_conditions":[2.257122E6,1.935678E6,5.80035E6,-3.8604652E4,-7.8372812E3,3.6746984E4,1.2012869E5],"split_indices":[0,0,0,0,0,0,0],"split_type":[0,0,0,0,0,0,0],"sum_hessian":[2.6E1,1.9E1,7E0,1.8E1,1E0,3E0,4E0],"tree_param":{"num_deleted":"0","num_feature":"4","num_nodes":"7","size_leaf_vector":"1"}},{"base_weights":[4.189668E3,-5.6907856E5,2.2965642E6,-6.950146E5,2.3435556E5,3.2465139E4,1.24807805E5,-3.6428777E4,-1.2539529E4,4.1245627E2,1.5348733E4],"categories":[],"categories_nodes":[],"categories_segments":[],"categories_sizes":[],"default_left":[0,0,0,0,0,0,0,0,0,0,0],"id":15,"left_children":[1,3,5,7,9,-1,-1,-1,-1,-1,-1],"loss_changes":[3.9417146E13,2.5912331E12,3.5191888E11,1.3036002E11,6.314628E10,0E0,0E0,0E0,0E0,0E0,0E0],"parents":[2147483647,0,0,1,1,2,2,3,3,4,4],"right_children":[2,4,6,8,10,-1,-1,-1,-1,-1,-1],"split_conditions":[3.877984E6,2.257122E6,5.80035E6,1.330538E6,2.764843E6,3.2465139E4,1.24807805E5,-3.6428777E4,-1.2539529E4,4.1245627E2,1.5348733E4],"split_indices":[0,0,0,2,0,0,0,0,0,0,0],"split_type":[0,0,0,0,0,0,0,0,0,0,0],"sum_hessian":[2.8E1,2.3E1,5E0,2E1,3E0,1E0,4E0,1.8E1,2E0,1E0,2E0],"tree_param":{"num_deleted":"0","num_feature":"4","num_nodes":"11","size_leaf_vector":"1"}},{"base_weights":[8.407105E4,-6.0068344E5,1.956637E6,-6.9119475E5,2.0295308E5,4.5894348E4,1.1981548E5,-3.5607316E4,-7.327863E3,4.0214377E2,1.4819338E4],"categories":[],"categories_nodes":[],"categories_segments":[],"categories_sizes":[],"default_left":[0,0,0,0,0,0,0,0,0,0,0],"id":16,"left_children":[1,3,5,7,9,-1,-1,-1,-1,-1,-1],"loss_changes":[3.836051E13,1.7405198E12,1.4541379E12,1.2385046E11,5.2249706E10,0E0,0E0,0E0,0E0,0E0,0E0],"parents":[2147483647,0,0,1,1,2,2,3,3,4,4],"right_children":[2,4,6,8,10,-1,-1,-1,-1,-1,-1],"split_conditions":[3.877984E6,2.257122E6,6.73756E6,1.935678E6,2.764843E6,4.5894348E4,1.1981548E5,-3.5607316E4,-7.327863E3,4.0214377E2,1.4819338E4],"split_indices":[0,0,0,0,0,0,0,0,0,0,0],"split_type":[0,0,0,0,0,0,0,0,0,0,0],"sum_hessian":[2.8E1,2.1E1,7E0,1.9E1,2E0,3E0,4E0,1.8E1,1E0,1E0,1E0],"tree_param":{"num_deleted":"0","num_feature":"4","num_nodes":"11","size_leaf_vector":"1"}},{"base_weights":[2.5511611E4,-5.685247E5,1.9737006E6,-6.509384E5,1.9787925E5,2.1110764E4,1.0809562E5,-3.3459797E4,-7.144669E3,3.920875E2,1.4448856E4],"categories":[],"categories_nodes":[],"categories_segments":[],"categories_sizes":[],"default_left":[0,0,0,0,0,0,0,0,0,0,0],"id":17,"left_children":[1,3,5,7,9,-1,-1,-1,-1,-1,-1],"loss_changes":[3.4683654E13,1.5815362E12,1.1312604E12,9.916593E10,4.9669947E10,0E0,0E0,0E0,0E0,0E0,0E0],"parents":[2147483647,0,0,1,1,2,2,3,3,4,4],"right_children":[2,4,6,8,10,-1,-1,-1,-1,-1,-1],"split_conditions":[3.877984E6,2.257122E6,4.754295E6,1.935678E6,2.764843E6,2.1110764E4,1.0809562E5,-3.3459797E4,-7.144669E3,3.920875E2,1.4448856E4],"split_indices":[0,0,0,0,0,0,0,0,0,0,0],"split_type":[0,0,0,0,0,0,0,0,0,0,0],"sum_hessian":[2.8E1,2.2E1,6E0,2E1,2E0,1E0,5E0,1.9E1,1E0,1E0,1E0],"tree_param":{"num_deleted":"0","num_feature":"4","num_nodes":"11","size_leaf_vector":"1"}},{"base_weights":[1.5795356E4,-5.3434456E5,2.0303424E6,-3.0948459E4,1.208625E3,2.7803764E4,1.1069904E5,-6.9660503E3,9.4492164E4,3.822875E2,6.704625E3],"categories":[],"categories_nodes":[],"categories_segments":[],"categories_sizes":[],"default_left":[0,0,0,0,0,0,0,0,0,0,0],"id":18,"left_children":[1,3,5,-1,7,-1,-1,-1,9,-1,-1],"loss_changes":[3.1008536E13,9.978092E11,3.9325375E11,0E0,6.5601147E10,0E0,0E0,0E0,9.292206E9,0E0,0E0],"parents":[2147483647,0,0,1,1,2,2,4,4,8,8],"right_children":[2,4,6,-1,8,-1,-1,-1,10,-1,-1],"split_conditions":[3.353134E6,1.935678E6,5.80035E6,-3.0948459E4,2.257122E6,2.7803764E4,1.1069904E5,-6.9660503E3,2.764843E6,3.822875E2,6.704625E3],"split_indices":[0,0,0,0,0,0,0,0,0,0,0],"split_type":[0,0,0,0,0,0,0,0,0,0,0],"sum_hessian":[2.6E1,2.1E1,5E0,1.8E1,3E0,1E0,4E0,1E0,2E0,1E0,1E0],"tree_param":{"num_deleted":"0","num_feature":"4","num_nodes":"11","size_leaf_vector":"1"}},{"base_weights":[-1.6487387E4,-4.8768253E5,1.7773516E6,-6.298787E5,2.0302288E5,3.8912336E4,1.09200305E5,-3.2687943E4,-6.7919E3,3.7273126E2,1.328637E4],"categories":[],"categories_nodes":[],"categories_segments":[],"categories_sizes":[],"default_left":[0,0,0,0,0,0,0,0,0,0,0],"id":19,"left_children":[1,3,5,7,9,-1,-1,-1,-1,-1,-1],"loss_changes":[2.0307492E13,1.9939779E12,3.317579E11,9.99597E10,4.7071166E10,0E0,0E0,0E0,0E0,0E0,0E0],"parents":[2147483647,0,0,1,1,2,2,3,3,4,4],"right_children":[2,4,6,8,10,-1,-1,-1,-1,-1,-1],"split_conditions":[3.877984E6,2.257122E6,6.73756E6,1.935678E6,2.764843E6,3.8912336E4,1.09200305E5,-3.2687943E4,-6.7919E3,3.7273126E2,1.328637E4],"split_indices":[0,0,0,0,0,0,0,0,0,0,0],"split_type":[0,0,0,0,0,0,0,0,0,0,0],"sum_hessian":[2.2E1,1.8E1,4E0,1.5E1,3E0,2E0,2E0,1.4E1,1E0,1E0,2E0],"tree_param":{"num_deleted":"0","num_feature":"4","num_nodes":"11","size_leaf_vector":"1"}},{"base_weights":[1.24309945E5,-4.923728E5,1.6504781E6,-5.7691156E5,1.78984E5,3.7668984E4,1.0190306E5,-3.4193375E4,-1.9698518E4,3.634125E2,1.3060388E4],"categories":[],"categories_nodes":[],"categories_segments":[],"categories_sizes":[],"default_left":[0,0,0,0,0,0,0,0,0,0,0],"id":20,"left_children":[1,3,5,7,9,-1,-1,-1,-1,-1,-1],"loss_changes":[2.6224013E13,1.2383714E12,1.2461676E12,8.277616E10,4.0458813E10,0E0,0E0,0E0,0E0,0E0,0E0],"parents":[2147483647,0,0,1,1,2,2,3,3,4,4],"right_children":[2,4,6,8,10,-1,-1,-1,-1,-1,-1],"split_conditions":[3.353134E6,1.330538E6,5.80035E6,1.1232426E6,2.257122E6,3.7668984E4,1.0190306E5,-3.4193375E4,-1.9698518E4,3.634125E2,1.3060388E4],"split_indices":[1,1,1,3,1,0,0,0,0,0,0],"split_type":[0,0,0,0,0,0,0,0,0,0,0],"sum_hessian":[2.6E1,1.9E1,7E0,1.7E1,2E0,3E0,4E0,9E0,8E0,1E0,1E0],"tree_param":{"num_deleted":"0","num_feature":"4","num_nodes":"11","size_leaf_vector":"1"}},{"base_weights":[7.703287E4,-4.2896612E5,1.5854008E6,-5.2637375E5,1.8966544E5,3.62564E4,9.782694E4,-2.6930182E4,-7.0444033E3,3.54325E2,1.2408146E4],"categories":[],"categories_nodes":[],"categories_segments":[],"categories_sizes":[],"default_left":[0,0,0,0,0,0,0,0,0,0,0],"id":21,"left_children":[1,3,5,7,9,-1,-1,-1,-1,-1,-1],"loss_changes":[2.4340295E13,1.5460608E12,1.1354988E12,2.3120577E10,4.096303E10,0E0,0E0,0E0,0E0,0E0,0E0],"parents":[2147483647,0,0,1,1,2,2,3,3,4,4],"right_children":[2,4,6,8,10,-1,-1,-1,-1,-1,-1],"split_conditions":[3.877984E6,1.935678E6,6.73756E6,1.330538E6,2.764843E6,3.62564E4,9.782694E4,-2.6930182E4,-7.0444033E3,3.54325E2,1.2408146E4],"split_indices":[0,0,0,2,0,0,0,0,0,0,0],"split_type":[0,0,0,0,0,0,0,0,0,0,0],"sum_hessian":[3E1,2.3E1,7E0,2E1,3E0,3E0,4E0,1.9E1,1E0,1E0,2E0],"tree_param":{"num_deleted":"0","num_feature":"4","num_nodes":"11","size_leaf_vector":"1"}},{"base_weights":[1.543111E5,-4.3005475E5,1.522891E6,-5.1069444E5,1.7025517E5,3.4896777E4,9.391387E4,-2.713824E4,-9.005559E3,3.4546875E2,1.2423669E4],"categories":[],"categories_nodes":[],"categories_segments":[],"categories_sizes":[],"default_left":[0,0,0,0,0,0,0,0,0,0,0],"id":22,"left_children":[1,3,5,7,9,-1,-1,-1,-1,-1,-1],"loss_changes":[2.1448463E13,1.00671606E12,1.0345062E12,8.247417E10,3.6613046E10,0E0,0E0,0E0,0E0,0E0,0E0],"parents":[2147483647,0,0,1,1,2,2,3,3,4,4],"right_children":[2,4,6,8,10,-1,-1,-1,-1,-1,-1],"split_conditions":[3.877984E6,2.257122E6,6.73756E6,1.330538E6,2.764843E6,3.4896777E4,9.391387E4,-2.713824E4,-9.005559E3,3.4546875E2,1.2423669E4],"split_indices":[0,0,0,2,0,0,0,0,0,0,0],"split_type":[0,0,0,0,0,0,0,0,0,0,0],"sum_hessian":[2.5E1,1.8E1,7E0,1.6E1,2E0,3E0,4E0,1.4E1,2E0,1E0,1E0],"tree_param":{"num_deleted":"0","num_feature":"4","num_nodes":"11","size_leaf_vector":"1"}},{"base_weights":[-3.8784375E2,-4.3318266E5,1.6587236E6,-4.6243194E5,5.257544E3,2.3415287E4,9.0157305E4,-2.8341863E4,-1.7327426E4],"categories":[],"categories_nodes":[],"categories_segments":[],"categories_sizes":[],"default_left":[0,0,0,0,0,0,0,0,0],"id":23,"left_children":[1,3,5,7,-1,-1,-1,-1,-1],"loss_changes":[2.0824065E13,4.107807E11,1.871142E11,6.973764E10,0E0,0E0,0E0,0E0,0E0],"parents":[2147483647,0,0,1,1,2,2,3,3],"right_children":[2,4,6,8,-1,-1,-1,-1,-1],"split_conditions":[3.353134E6,2.257122E6,5.80035E6,1.098342E6,5.257544E3,2.3415287E4,9.0157305E4,-2.8341863E4,-1.7327426E4],"split_indices":[0,0,0,0,0,0,0,0,0],"split_type":[0,0,0,0,0,0,0,0,0],"sum_hessian":[2.7E1,2.2E1,5E0,2.1E1,1E0,1E0,4E0,9E0,1.2E1],"tree_param":{"num_deleted":"0","num_feature":"4","num_nodes":"9","size_leaf_vector":"1"}},{"base_weights":[3.8485496E4,-4.1432128E5,1.4560946E6,-4.664164E5,7.1086664E4,2.5626037E4,8.6551E4,-2.8566951E4,-1.5217997E4,2.0539375E2,5.1261064E3],"categories":[],"categories_nodes":[],"categories_segments":[],"categories_sizes":[],"default_left":[0,0,0,0,0,0,0,0,0,0,0],"id":24,"left_children":[1,3,5,7,9,-1,-1,-1,-1,-1,-1],"loss_changes":[1.8576575E13,5.894782E11,9.2870384E11,1.6617518E11,5.895379E9,0E0,0E0,0E0,0E0,0E0,0E0],"parents":[2147483647,0,0,1,1,2,2,3,3,4,4],"right_children":[2,4,6,8,10,-1,-1,-1,-1,-1,-1],"split_conditions":[3.353134E6,2.257122E6,5.80035E6,1.098342E6,2.764843E6,2.5626037E4,8.6551E4,-2.8566951E4,-1.5217997E4,2.0539375E2,5.1261064E3],"split_indices":[0,0,0,0,0,0,0,0,0,0,0],"split_type":[0,0,0,0,0,0,0,0,0,0,0],"sum_hessian":[2.7E1,2.1E1,6E0,1.9E1,2E0,2E0,4E0,1E1,9E0,1E0,1E0],"tree_param":{"num_deleted":"0","num_feature":"4","num_nodes":"11","size_leaf_vector":"1"}},{"base_weights":[1.4887378E5,-3.6054934E5,1.3401445E6,-4.290547E5,1.4783067E5,3.0153254E4,8.308896E4,-2.8177373E4,-1.6302689E4,2.0025626E2,1.0887044E4],"categories":[],"categories_nodes":[],"categories_segments":[],"categories_sizes":[],"default_left":[0,0,0,0,0,0,0,0,0,0,0],"id":25,"left_children":[1,3,5,7,9,-1,-1,-1,-1,-1,-1],"loss_changes":[1.6261571E13,7.251354E11,8.944018E11,5.1752206E10,2.929254E10,0E0,0E0,0E0,0E0,0E0,0E0],"parents":[2147483647,0,0,1,1,2,2,3,3,4,4],"right_children":[2,4,6,8,10,-1,-1,-1,-1,-1,-1],"split_conditions":[3.877984E6,2.257122E6,6.73756E6,1.066161E6,2.764843E6,3.0153254E4,8.308896E4,-2.8177373E4,-1.6302689E4,2.0025626E2,1.0887044E4],"split_indices":[0,0,0,1,0,0,0,0,0,0,0],"split_type":[0,0,0,0,0,0,0,0,0,0,0],"sum_hessian":[2.5E1,1.8E1,7E0,1.6E1,2E0,3E0,4E0,5E0,1.1E1,1E0,1E0],"tree_param":{"num_deleted":"0","num_feature":"4","num_nodes":"11","size_leaf_vector":"1"}},{"base_weights":[6.2151453E4,-3.4466788E5,1.3899648E6,-3.8686678E5,6.561375E4,2.9220217E4,7.97654E4,-2.0262043E4,-7.0771025E3,1.9525E2,4.7257812E3],"categories":[],"categories_nodes":[],"categories_segments":[],"categories_sizes":[],"default_left":[0,0,0,0,0,0,0,0,0,0,0],"id":26,"left_children":[1,3,5,7,9,-1,-1,-1,-1,-1,-1],"loss_changes":[1.6144298E13,4.2359272E11,2.2561056E11,3.730152E10,4.981413E9,0E0,0E0,0E0,0E0,0E0,0E0],"parents":[2147483647,0,0,1,1,2,2,3,3,4,4],"right_children":[2,4,6,8,10,-1,-1,-1,-1,-1,-1],"split_conditions":[3.353134E6,2.257122E6,6.73756E6,1.330538E6,2.764843E6,2.9220217E4,7.97654E4,-2.0262043E4,-7.0771025E3,1.9525E2,4.7257812E3],"split_indices":[0,0,0,2,0,0,0,0,0,0,0],"split_type":[0,0,0,0,0,0,0,0,0,0,0],"sum_hessian":[2.8E1,2.2E1,6E0,2E1,2E0,2E0,4E0,1.8E1,2E0,1E0,1E0],"tree_param":{"num_deleted":"0","num_feature":"4","num_nodes":"11","size_leaf_vector":"1"}},{"base_weights":[5.3741055E4,-3.4183147E5,1.2892916E6,-3.8561062E5,6.3973418E4,2.2792725E4,7.657478E4,-2.5798998E4,-1.4644116E4,1.9036876E2,4.6076377E3],"categories":[],"categories_nodes":[],"categories_segments":[],"categories_sizes":[],"default_left":[0,0,0,0,0,0,0,0,0,0,0],"id":27,"left_children":[1,3,5,7,9,-1,-1,-1,-1,-1,-1],"loss_changes":[1.4125715E13,4.1551633E11,7.148929E11,9.065726E10,4.7354573E9,0E0,0E0,0E0,0E0,0E0,0E0],"parents":[2147483647,0,0,1,1,2,2,3,3,4,4],"right_children":[2,4,6,8,10,-1,-1,-1,-1,-1,-1],"split_conditions":[2.764843E6,1.935678E6,4.754295E6,9.89211E5,2.257122E6,2.2792725E4,7.657478E4,-2.5798998E4,-1.4644116E4,1.9036876E2,4.6076377E3],"split_indices":[1,1,1,1,1,0,0,0,0,0,0],"split_type":[0,0,0,0,0,0,0,0,0,0,0],"sum_hessian":[2.7E1,2.1E1,6E0,1.9E1,2E0,2E0,4E0,6E0,1.3E1,1E0,1E0],"tree_param":{"num_deleted":"0","num_feature":"4","num_nodes":"11","size_leaf_vector":"1"}},{"base_weights":[1.2128577E5,-2.8891222E5,1.1828948E6,-3.681589E5,1.39926E5,2.639975E4,7.351178E4,-2.2075916E4,-1.3265979E4,1.856125E2,9.204659E3],"categories":[],"categories_nodes":[],"categories_segments":[],"categories_sizes":[],"default_left":[0,0,0,0,0,0,0,0,0,0,0],"id":28,"left_children":[1,3,5,7,9,-1,-1,-1,-1,-1,-1],"loss_changes":[1.2534908E13,7.651791E11,7.291588E11,1.8652856E10,2.3381295E10,0E0,0E0,0E0,0E0,0E0,0E0],"parents":[2147483647,0,0,1,1,2,2,3,3,4,4],"right_children":[2,4,6,8,10,-1,-1,-1,-1,-1,-1],"split_conditions":[3.877984E6,2.257122E6,6.73756E6,1.098342E6,2.764843E6,2.639975E4,7.351178E4,-2.2075916E4,-1.3265979E4,1.856125E2,9.204659E3],"split_indices":[0,0,0,0,0,0,0,0,0,0,0],"split_type":[0,0,0,0,0,0,0,0,0,0,0],"sum_hessian":[2.7E1,2E1,7E0,1.7E1,3E0,3E0,4E0,8E0,9E0,1E0,2E0],"tree_param":{"num_deleted":"0","num_feature":"4","num_nodes":"11","size_leaf_vector":"1"}},{"base_weights":[2.112019E4,-3.2024222E5,9.446581E5,-3.4750528E5,4.262325E3,2.0214426E4,6.2443164E4,-2.3932834E4,-1.3012136E4],"categories":[],"categories_nodes":[],"categories_segments":[],"categories_sizes":[],"default_left":[0,0,0,0,0,0,0,0,0],"id":29,"left_children":[1,3,5,7,-1,-1,-1,-1,-1],"loss_changes":[8.1840476E12,2.3966607E11,6.4578126E11,8.143608E10,0E0,0E0,0E0,0E0,0E0],"parents":[2147483647,0,0,1,1,2,2,3,3],"right_children":[2,4,6,8,-1,-1,-1,-1,-1],"split_conditions":[3.353134E6,2.257122E6,6.73756E6,9.89211E5,4.262325E3,2.0214426E4,6.2443164E4,-2.3932834E4,-1.3012136E4],"split_indices":[0,0,0,2,0,0,0,0,0],"split_type":[0,0,0,0,0,0,0,0,0],"sum_hessian":[2.4E1,1.8E1,6E0,1.7E1,1E0,3E0,3E0,5E0,1.2E1],"tree_param":{"num_deleted":"0","num_feature":"4","num_nodes":"9","size_leaf_vector":"1"}},{"base_weights":[7.044363E4,-3.0621047E5,1.097437E6,-3.623012E5,8.489888E3,2.4651719E4,6.8073586E4,-2.4971074E4,-1.3393119E4],"categories":[],"categories_nodes":[],"categories_segments":[],"categories_sizes":[],"default_left":[0,0,0,0,0,0,0,0,0],"id":30,"left_children":[1,3,5,7,-1,-1,-1,-1,-1],"loss_changes":[1.1553863E13,6.489098E11,6.054142E11,1.2521334E11,0E0,0E0,0E0,0E0,0E0],"parents":[2147483647,0,0,1,1,2,2,3,3],"right_children":[2,4,6,8,-1,-1,-1,-1,-1],"split_conditions":[3.877984E6,1.935678E6,6.73756E6,9.89211E5,8.489888E3,2.4651719E4,6.8073586E4,-2.4971074E4,-1.3393119E4],"split_indices":[0,0,0,0,0,0,0,0,0],"split_type":[0,0,0,0,0,0,0,0,0],"sum_hessian":[2.8E1,2.1E1,7E0,1.9E1,2E0,3E0,4E0,6E0,1.3E1],"tree_param":{"num_deleted":"0","num_feature":"4","num_nodes":"9","size_leaf_vector":"1"}},{"base_weights":[-5.607082E4,-2.724047E5,1.3100335E6,-3.316826E5,1.21725E5,1.8353451E4,7.509993E4,-2.4155162E4,-2.5872928E5,-1.3783125E2,8.206888E3,-1.3582245E4,-5.3954062E3],"categories":[],"categories_nodes":[],"categories_segments":[],"categories_sizes":[],"default_left":[0,0,0,0,0,0,0,0,0,0,0,0,0],"id":31,"left_children":[1,3,5,7,9,-1,-1,-1,11,-1,-1,-1,-1],"loss_changes":[8.631829E12,6.244536E11,1.7272825E11,1.1803296E11,2.15709E10,0E0,0E0,0E0,3.8023987E9,0E0,0E0,0E0,0E0],"parents":[2147483647,0,0,1,1,2,2,3,3,4,4,8,8],"right_children":[2,4,6,8,10,-1,-1,-1,12,-1,-1,-1,-1],"split_conditions":[3.353134E6,1.935678E6,4.754295E6,9.40358E5,2.257122E6,1.8353451E4,7.509993E4,-2.4155162E4,1.330538E6,-1.3783125E2,8.206888E3,-1.3582245E4,-5.3954062E3],"split_indices":[1,1,1,1,1,0,0,0,2,0,0,0,0],"split_type":[0,0,0,0,0,0,0,0,0,0,0,0,0],"sum_hessian":[2.7E1,2.4E1,3E0,2.1E1,3E0,1E0,2E0,5E0,1.6E1,1E0,2E0,1.4E1,2E0],"tree_param":{"num_deleted":"0","num_feature":"4","num_nodes":"13","size_leaf_vector":"1"}},{"base_weights":[7.515822E4,-2.6552053E5,1.00263E6,-2.992805E5,4.805275E4,2.6384576E4,6.728228E4,-1.9124662E4,-1.1252554E4,-1.343875E2,3.7383438E3],"categories":[],"categories_nodes":[],"categories_segments":[],"categories_sizes":[],"default_left":[0,0,0,0,0,0,0,0,0,0,0],"id":32,"left_children":[1,3,5,7,9,-1,-1,-1,-1,-1,-1],"loss_changes":[9.429347E12,2.472782E11,5.932046E11,3.7456052E10,4.2674186E9,0E0,0E0,0E0,0E0,0E0,0E0],"parents":[2147483647,0,0,1,1,2,2,3,3,4,4],"right_children":[2,4,6,8,10,-1,-1,-1,-1,-1,-1],"split_conditions":[2.764843E6,1.935678E6,6.73756E6,1.1232426E6,2.257122E6,2.6384576E4,6.728228E4,-1.9124662E4,-1.1252554E4,-1.343875E2,3.7383438E3],"split_indices":[1,1,1,3,1,0,0,0,0,0,0],"split_type":[0,0,0,0,0,0,0,0,0,0,0],"sum_hessian":[2.8E1,2.1E1,7E0,1.9E1,2E0,4E0,3E0,7E0,1.2E1,1E0,1E0],"tree_param":{"num_deleted":"0","num_feature":"4","num_nodes":"11","size_leaf_vector":"1"}},{"base_weights":[-3.1022959E4,-2.9110003E5,7.9079394E5,-2.2351838E4,-2.1894E5,1.6473795E4,5.2720676E4,-2.3229619E5,-1.3102501E2,-1.2236823E4,-4.840475E3],"categories":[],"categories_nodes":[],"categories_segments":[],"categories_sizes":[],"default_left":[0,0,0,0,0,0,0,0,0,0,0],"id":33,"left_children":[1,3,5,-1,7,-1,-1,9,-1,-1,-1],"loss_changes":[6.2148004E12,1.4967846E11,5.038835E11,0E0,4.850778E10,0E0,0E0,3.275096E9,0E0,0E0,0E0],"parents":[2147483647,0,0,1,1,2,2,4,4,7,7],"right_children":[2,4,6,-1,8,-1,-1,10,-1,-1,-1],"split_conditions":[2.257122E6,9.40358E5,5.80035E6,-2.2351838E4,1.935678E6,1.6473795E4,5.2720676E4,1.330538E6,-1.3102501E2,-1.2236823E4,-4.840475E3],"split_indices":[1,1,1,0,1,0,0,2,0,0,0],"split_type":[0,0,0,0,0,0,0,0,0,0,0],"sum_hessian":[2.7E1,2.1E1,6E0,5E0,1.6E1,3E0,3E0,1.5E1,1E0,1.3E1,2E0],"tree_param":{"num_deleted":"0","num_feature":"4","num_nodes":"11","size_leaf_vector":"1"}},{"base_weights":[1.9130215E4,-2.6051264E5,9.352239E5,-2.9858516E5,9.2832414E4,2.4307771E4,6.85965E4,-2.10881E4,-1.1059848E4,-1.2775E2,7.090181E3],"categories":[],"categories_nodes":[],"categories_segments":[],"categories_sizes":[],"default_left":[0,0,0,0,0,0,0,0,0,0,0],"id":34,"left_children":[1,3,5,7,9,-1,-1,-1,-1,-1,-1],"loss_changes":[7.6728296E12,3.371312E11,7.058054E11,1.0688843E11,1.437602E10,0E0,0E0,0E0,0E0,0E0,0E0],"parents":[2147483647,0,0,1,1,2,2,3,3,4,4],"right_children":[2,4,6,8,10,-1,-1,-1,-1,-1,-1],"split_conditions":[3.877984E6,1.935678E6,7.510364E6,9.89211E5,2.764843E6,2.4307771E4,6.85965E4,-2.10881E4,-1.1059848E4,-1.2775E2,7.090181E3],"split_indices":[0,0,0,0,0,0,0,0,0,0,0],"split_type":[0,0,0,0,0,0,0,0,0,0,0],"sum_hessian":[2.8E1,2.2E1,6E0,2E1,2E0,4E0,2E0,6E0,1.4E1,1E0,1E0],"tree_param":{"num_deleted":"0","num_feature":"4","num_nodes":"11","size_leaf_vector":"1"}},{"base_weights":[7.5973184E3,-2.7877984E5,8.1773306E5,-1.559753E4,-4.6493643E3,8.994726E3,4.5466094E4],"categories":[],"categories_nodes":[],"categories_segments":[],"categories_sizes":[],"default_left":[0,0,0,0,0,0,0],"id":35,"left_children":[1,3,5,-1,-1,-1,-1],"loss_changes":[5.332064E12,7.576145E10,1.8693148E11,0E0,0E0,0E0,0E0],"parents":[2147483647,0,0,1,1,2,2],"right_children":[2,4,6,-1,-1,-1,-1],"split_conditions":[2.257122E6,1.224185E6,4.754295E6,-1.559753E4,-4.6493643E3,8.994726E3,4.5466094E4],"split_indices":[0,3,0,0,0,0,0],"split_type":[0,0,0,0,0,0,0],"sum_hessian":[2.1E1,1.6E1,5E0,1.3E1,3E0,1E0,4E0],"tree_param":{"num_deleted":"0","num_feature":"4","num_nodes":"7","size_leaf_vector":"1"}},{"base_weights":[-2.9187799E4,-2.2747738E5,6.696904E5,-2.5664656E5,3.3086582E4,1.7524723E4,5.664175E4,-1.7807408E4,-9.783557E3,-3.4942502E2,2.8309187E3],"categories":[],"categories_nodes":[],"categories_segments":[],"categories_sizes":[],"default_left":[0,0,0,0,0,0,0,0,0,0,0],"id":36,"left_children":[1,3,5,7,9,-1,-1,-1,-1,-1,-1],"loss_changes":[3.7554262E12,1.681007E11,4.8995107E11,4.558802E10,3.2247933E9,0E0,0E0,0E0,0E0,0E0,0E0],"parents":[2147483647,0,0,1,1,2,2,3,3,4,4],"right_children":[2,4,6,8,10,-1,-1,-1,-1,-1,-1],"split_conditions":[2.764843E6,1.935678E6,5.80035E6,9.40358E5,2.257122E6,1.7524723E4,5.664175E4,-1.7807408E4,-9.783557E3,-3.4942502E2,2.8309187E3],"split_indices":[1,1,1,1,1,0,0,0,0,0,0],"split_type":[0,0,0,0,0,0,0,0,0,0,0],"sum_hessian":[2.5E1,2E1,5E0,1.8E1,2E0,4E0,1E0,5E0,1.3E1,1E0,1E0],"tree_param":{"num_deleted":"0","num_feature":"4","num_nodes":"11","size_leaf_vector":"1"}},{"base_weights":[6.3631367E4,-1.5316016E5,1.0047878E6,-2.2497606E5,1.3600916E5,2.0825967E4,6.290635E4,-1.1521705E4,-3.304744E3,-3.406875E2,8.670916E3],"categories":[],"categories_nodes":[],"categories_segments":[],"categories_sizes":[],"default_left":[0,0,0,0,0,0,0,0,0,0,0],"id":37,"left_children":[1,3,5,7,9,-1,-1,-1,-1,-1,-1],"loss_changes":[5.4587965E12,4.874719E11,2.2112266E11,3.78667E8,2.7896054E10,0E0,0E0,0E0,0E0,0E0,0E0],"parents":[2147483647,0,0,1,1,2,2,3,3,4,4],"right_children":[2,4,6,8,10,-1,-1,-1,-1,-1,-1],"split_conditions":[4.754295E6,2.257122E6,7.510364E6,1.935678E6,2.764843E6,2.0825967E4,6.290635E4,-1.1521705E4,-3.304744E3,-3.406875E2,8.670916E3],"split_indices":[0,0,1,0,0,0,0,0,0,0,0],"split_type":[0,0,0,0,0,0,0,0,0,0,0],"sum_hessian":[2.5E1,2.1E1,4E0,1.7E1,4E0,2E0,2E0,1.6E1,1E0,1E0,3E0],"tree_param":{"num_deleted":"0","num_feature":"4","num_nodes":"11","size_leaf_vector":"1"}},{"base_weights":[2.8917232E4,-2.2645264E5,8.638586E5,-2.7467597E5,-4.4040543E4,2.3984426E4,6.080947E4,-1.9077004E4,-1.0211258E4,-4.4086406E3,2.9482666E4,-3.3216876E2,2.543369E3],"categories":[],"categories_nodes":[],"categories_segments":[],"categories_sizes":[],"default_left":[0,0,0,0,0,0,0,0,0,0,0,0,0],"id":38,"left_children":[1,3,5,7,9,-1,-1,-1,-1,-1,11,-1,-1],"loss_changes":[6.3789707E12,1.9022296E11,3.6409285E11,5.759579E10,2.2068048E10,0E0,0E0,0E0,0E0,0E0,2.6555656E9,0E0,0E0],"parents":[2147483647,0,0,1,1,2,2,3,3,4,4,10,10],"right_children":[2,4,6,8,10,-1,-1,-1,-1,-1,12,-1,-1],"split_conditions":[3.353134E6,1.224185E6,7.51128E6,9.40358E5,2.257122E6,2.3984426E4,6.080947E4,-1.9077004E4,-1.0211258E4,-4.4086406E3,2.764843E6,-3.3216876E2,2.543369E3],"split_indices":[0,3,2,0,0,0,0,0,0,0,0,0,0],"split_type":[0,0,0,0,0,0,0,0,0,0,0,0,0],"sum_hessian":[2.8E1,2.2E1,6E0,1.7E1,5E0,4E0,2E0,5E0,1.2E1,3E0,2E0,1E0,1E0],"tree_param":{"num_deleted":"0","num_feature":"4","num_nodes":"13","size_leaf_vector":"1"}},{"base_weights":[2.9660375E4,-1.8512384E5,6.697759E5,-2.3284333E5,7.589475E4,2.1692658E4,5.21328E4,-1.3604877E4,-1.3228705E5,-3.2386252E2,5.275558E3,-3.4266423E3,-8.148475E3],"categories":[],"categories_nodes":[],"categories_segments":[],"categories_sizes":[],"default_left":[0,0,0,0,0,0,0,0,0,0,0,0,0],"id":39,"left_children":[1,3,5,7,9,-1,-1,-1,11,-1,-1,-1,-1],"loss_changes":[3.8361325E12,2.7924064E11,1.6343682E11,3.5055665E10,1.0441675E10,0E0,0E0,0E0,2.5241846E9,0E0,0E0,0E0,0E0],"parents":[2147483647,0,0,1,1,2,2,3,3,4,4,8,8],"right_children":[2,4,6,8,10,-1,-1,-1,12,-1,-1,-1,-1],"split_conditions":[3.877984E6,2.257122E6,8.515259E6,1.2180676E6,2.764843E6,2.1692658E4,5.21328E4,-1.3604877E4,1.243675E6,-3.2386252E2,5.275558E3,-3.4266423E3,-8.148475E3],"split_indices":[0,0,0,3,0,0,0,0,1,0,0,0,0],"split_type":[0,0,0,0,0,0,0,0,0,0,0,0,0],"sum_hessian":[2.6E1,2E1,6E0,1.7E1,3E0,5E0,1E0,1.1E1,6E0,1E0,2E0,3E0,3E0],"tree_param":{"num_deleted":"0","num_feature":"4","num_nodes":"13","size_leaf_vector":"1"}},{"base_weights":[6.812256E4,-1.5104922E5,8.098369E5,-2.0987275E5,1.1445475E5,2.2157346E4,5.755206E4,-1.5297499E4,-7.872517E3,-3.1576877E2,7.311306E3],"categories":[],"categories_nodes":[],"categories_segments":[],"categories_sizes":[],"default_left":[0,0,0,0,0,0,0,0,0,0,0],"id":40,"left_children":[1,3,5,7,9,-1,-1,-1,-1,-1,-1],"loss_changes":[4.9992103E12,3.9885003E11,3.6573282E11,5.2560003E10,2.0108636E10,0E0,0E0,0E0,0E0,0E0,0E0],"parents":[2147483647,0,0,1,1,2,2,3,3,4,4],"right_children":[2,4,6,8,10,-1,-1,-1,-1,-1,-1],"split_conditions":[4.754295E6,2.257122E6,7.510364E6,9.89211E5,2.764843E6,2.2157346E4,5.755206E4,-1.5297499E4,-7.872517E3,-3.1576877E2,7.311306E3],"split_indices":[0,0,1,0,0,0,0,0,0,0,0],"split_type":[0,0,0,0,0,0,0,0,0,0,0],"sum_hessian":[2.9E1,2.3E1,6E0,1.9E1,4E0,4E0,2E0,5E0,1.4E1,1E0,3E0],"tree_param":{"num_deleted":"0","num_feature":"4","num_nodes":"11","size_leaf_vector":"1"}},{"base_weights":[4.65059E4,-1.6252784E5,8.4005094E5,-2.257261E5,1.101311E5,2.1278576E4,5.5633656E4,-1.7077863E4,-7.9980444E3,-3.07875E2,1.4074262E5,2.165119E3,7.939429E3],"categories":[],"categories_nodes":[],"categories_segments":[],"categories_sizes":[],"default_left":[0,0,0,0,0,0,0,0,0,0,0,0,0],"id":41,"left_children":[1,3,5,7,9,-1,-1,-1,-1,-1,11,-1,-1],"loss_changes":[4.7811065E12,4.211856E11,2.0445554E11,9.0099745E10,1.8665488E10,0E0,0E0,0E0,0E0,0E0,1.576878E8,0E0,0E0],"parents":[2147483647,0,0,1,1,2,2,3,3,4,4,10,10],"right_children":[2,4,6,8,10,-1,-1,-1,-1,-1,12,-1,-1],"split_conditions":[4.754295E6,2.257122E6,7.51128E6,9.40358E5,2.764843E6,2.1278576E4,5.5633656E4,-1.7077863E4,-7.9980444E3,-3.07875E2,3.353134E6,2.165119E3,7.939429E3],"split_indices":[0,0,2,0,0,0,0,0,0,0,0,0,0],"split_type":[0,0,0,0,0,0,0,0,0,0,0,0,0],"sum_hessian":[2.7E1,2.2E1,5E0,1.8E1,4E0,3E0,2E0,5E0,1.3E1,1E0,3E0,1E0,2E0],"tree_param":{"num_deleted":"0","num_feature":"4","num_nodes":"13","size_leaf_vector":"1"}},{"base_weights":[3.6922465E4,-1.7255219E5,7.9884244E5,-2.0721294E5,5.8018457E3,1.9578775E4,5.3779207E4,-1.5955305E4,-1.5929552E5,-8.482121E3,-2.895571E3],"categories":[],"categories_nodes":[],"categories_segments":[],"categories_sizes":[],"default_left":[0,0,0,0,0,0,0,0,0,0,0],"id":42,"left_children":[1,3,5,7,-1,-1,-1,-1,9,-1,-1],"loss_changes":[4.447121E12,2.441041E11,2.5507424E11,5.640048E10,0E0,0E0,0E0,0E0,6.959956E9,0E0,0E0],"parents":[2147483647,0,0,1,1,2,2,3,3,8,8],"right_children":[2,4,6,8,-1,-1,-1,-1,10,-1,-1],"split_conditions":[3.877984E6,1.935678E6,7.510364E6,8.74255E5,5.8018457E3,1.9578775E4,5.3779207E4,-1.5955305E4,1.330538E6,-8.482121E3,-2.895571E3],"split_indices":[1,1,1,1,0,0,0,0,2,0,0],"split_type":[0,0,0,0,0,0,0,0,0,0,0],"sum_hessian":[2.6E1,2.1E1,5E0,1.9E1,2E0,3E0,2E0,4E0,1.5E1,1.3E1,2E0],"tree_param":{"num_deleted":"0","num_feature":"4","num_nodes":"11","size_leaf_vector":"1"}},{"base_weights":[5.1595742E4,-1.3180988E5,7.460513E5,-1.863863E5,1.0194245E5,1.696392E4,5.1986574E4,-1.3421664E4,-1.3790998E5,-4.4521875E2,1.3188025E5,-7.344987E3,-2.7990522E3,1.9659501E3,7.481384E3],"categories":[],"categories_nodes":[],"categories_segments":[],"categories_sizes":[],"default_left":[0,0,0,0,0,0,0,0,0,0,0,0,0,0,0],"id":43,"left_children":[1,3,5,7,9,-1,-1,-1,11,-1,13,-1,-1,-1,-1],"loss_changes":[3.6646145E12,3.1242E11,3.6400844E11,3.8549717E10,1.7766859E10,0E0,0E0,0E0,2.087682E9,0E0,6.876856E8,0E0,0E0,0E0,0E0],"parents":[2147483647,0,0,1,1,2,2,3,3,4,4,8,8,10,10],"right_children":[2,4,6,8,10,-1,-1,-1,12,-1,14,-1,-1,-1,-1],"split_conditions":[4.754295E6,2.257122E6,7.510364E6,9.89211E5,2.764843E6,1.696392E4,5.1986574E4,-1.3421664E4,1.2649954E6,-4.4521875E2,3.353134E6,-7.344987E3,-2.7990522E3,1.9659501E3,7.481384E3],"split_indices":[0,0,0,0,0,0,0,0,3,0,0,0,0,0,0],"split_type":[0,0,0,0,0,0,0,0,0,0,0,0,0,0,0],"sum_hessian":[2.7E1,2.2E1,5E0,1.8E1,4E0,3E0,2E0,5E0,1.3E1,1E0,3E0,1.1E1,2E0,1E0,2E0],"tree_param":{"num_deleted":"0","num_feature":"4","num_nodes":"15","size_leaf_vector":"1"}},{"base_weights":[6.718809E4,-1.3153E5,7.5150344E5,-1.9149169E5,9.86457E4,1.8672488E4,5.025369E4,-1.34550205E4,-7.3456025E3,-4.340875E2,1.27648E5,1.9168E3,7.232E3],"categories":[],"categories_nodes":[],"categories_segments":[],"categories_sizes":[],"default_left":[0,0,0,0,0,0,0,0,0,0,0,0,0],"id":44,"left_children":[1,3,5,7,9,-1,-1,-1,-1,-1,11,-1,-1],"loss_changes":[3.6344771E12,3.0872594E11,1.9983473E11,1.9282002E10,1.6671924E10,0E0,0E0,0E0,0E0,0E0,5.2543898E8,0E0,0E0],"parents":[2147483647,0,0,1,1,2,2,3,3,4,4,10,10],"right_children":[2,4,6,8,10,-1,-1,-1,-1,-1,12,-1,-1],"split_conditions":[4.754295E6,2.257122E6,7.510364E6,9.40358E5,2.764843E6,1.8672488E4,5.025369E4,-1.34550205E4,-7.3456025E3,-4.340875E2,3.353134E6,1.9168E3,7.232E3],"split_indices":[0,0,1,0,0,0,0,0,0,0,0,0,0],"split_type":[0,0,0,0,0,0,0,0,0,0,0,0,0],"sum_hessian":[2.5E1,2E1,5E0,1.6E1,4E0,3E0,2E0,4E0,1.2E1,1E0,3E0,1E0,2E0],"tree_param":{"num_deleted":"0","num_feature":"4","num_nodes":"13","size_leaf_vector":"1"}},{"base_weights":[6.710014E4,-1.2418535E5,7.25416E5,-1.8148083E5,9.545635E4,1.797227E4,4.8578574E4,-1.5202929E4,-1.334957E5,-4.2323752E2,1.2355281E5,-7.1720244E3,-2.4609001E3,1.8688812E3,6.9909336E3],"categories":[],"categories_nodes":[],"categories_segments":[],"categories_sizes":[],"default_left":[0,0,0,0,0,0,0,0,0,0,0,0,0,0,0],"id":45,"left_children":[1,3,5,7,9,-1,-1,-1,11,-1,13,-1,-1,-1,-1],"loss_changes":[3.3641694E12,2.8159754E11,1.91287E11,5.9401896E10,1.5644918E10,0E0,0E0,0E0,4.6738964E9,0E0,3.8076006E8,0E0,0E0,0E0,0E0],"parents":[2147483647,0,0,1,1,2,2,3,3,4,4,8,8,10,10],"right_children":[2,4,6,8,10,-1,-1,-1,12,-1,14,-1,-1,-1,-1],"split_conditions":[3.877984E6,1.935678E6,7.510364E6,7.54725E5,2.257122E6,1.797227E4,4.8578574E4,-1.5202929E4,1.330538E6,-4.2323752E2,2.764843E6,-7.1720244E3,-2.4609001E3,1.8688812E3,6.9909336E3],"split_indices":[1,1,1,1,1,0,0,0,2,0,1,0,0,0,0],"split_type":[0,0,0,0,0,0,0,0,0,0,0,0,0,0,0],"sum_hessian":[2.5E1,2E1,5E0,1.6E1,4E0,3E0,2E0,3E0,1.3E1,1E0,3E0,1.1E1,2E0,1E0,2E0],"tree_param":{"num_deleted":"0","num_feature":"4","num_nodes":"15","size_leaf_vector":"1"}},{"base_weights":[-4.3340703E4,-1.3152381E5,7.059655E5,-1.7856903E5,9.23708E4,1.0062513E4,4.2884902E4,-1.4890453E4,-6.6497183E3,-4.1265625E2,1.1959006E5,1.8221562E3,6.7579E3],"categories":[],"categories_nodes":[],"categories_segments":[],"categories_sizes":[],"default_left":[0,0,0,0,0,0,0,0,0,0,0,0,0],"id":46,"left_children":[1,3,5,7,9,-1,-1,-1,-1,-1,11,-1,-1],"loss_changes":[1.8769075E12,2.7982378E11,5.7133105E10,7.451391E10,1.4681539E10,0E0,0E0,0E0,0E0,0E0,2.5212518E8,0E0,0E0],"parents":[2147483647,0,0,1,1,2,2,3,3,4,4,10,10],"right_children":[2,4,6,8,10,-1,-1,-1,-1,-1,12,-1,-1],"split_conditions":[3.877984E6,1.935678E6,4.754295E6,8.22735E5,2.257122E6,1.0062513E4,4.2884902E4,-1.4890453E4,-6.6497183E3,-4.1265625E2,2.764843E6,1.8221562E3,6.7579E3],"split_indices":[1,1,1,1,1,0,0,0,0,0,1,0,0],"split_type":[0,0,0,0,0,0,0,0,0,0,0,0,0],"sum_hessian":[2.6E1,2.4E1,2E0,2E1,4E0,1E0,1E0,4E0,1.6E1,1E0,3E0,1E0,2E0],"tree_param":{"num_deleted":"0","num_feature":"4","num_nodes":"13","size_leaf_vector":"1"}},{"base_weights":[5.4189117E4,-1.1621422E5,6.699698E5,-1.8006098E5,1.802525E4,1.6100394E4,4.5529793E4,-1.195611E4,-6.8422905E3,-4.1292668E4,6.5326333E3,-3.9335938E2,-4.6404324E4,-2.6991016E3,-4.023375E2],"categories":[],"categories_nodes":[],"categories_segments":[],"categories_sizes":[],"default_left":[0,0,0,0,0,0,0,0,0,0,0,0,0,0,0],"id":47,"left_children":[1,3,5,7,9,-1,-1,-1,-1,11,-1,-1,13,-1,-1],"loss_changes":[2.9109995E12,1.9180231E11,2.0915316E11,5.562237E9,5.8841588E10,0E0,0E0,0E0,0E0,6.6008576E8,0E0,0E0,1.0189322E9,0E0,0E0],"parents":[2147483647,0,0,1,1,2,2,3,3,4,4,9,9,12,12],"right_children":[2,4,6,8,10,-1,-1,-1,-1,12,-1,-1,14,-1,-1],"split_conditions":[4.754295E6,1.224185E6,7.510364E6,9.40358E5,2.764843E6,1.6100394E4,4.5529793E4,-1.195611E4,-6.8422905E3,1.103762E6,6.5326333E3,-3.9335938E2,2.257122E6,-2.6991016E3,-4.023375E2],"split_indices":[0,3,1,0,0,0,0,0,0,1,0,0,0,0,0],"split_type":[0,0,0,0,0,0,0,0,0,0,0,0,0,0,0],"sum_hessian":[2.6E1,2.1E1,5E0,1.4E1,7E0,3E0,2E0,4E0,1E1,5E0,2E0,1E0,4E0,3E0,1E0],"tree_param":{"num_deleted":"0","num_feature":"4","num_nodes":"15","size_leaf_vector":"1"}},{"base_weights":[2.4634605E4,-1.360226E5,4.8013594E5,-1.7980522E5,3.128635E4,1.4449755E4,4.0674527E4,-1.3816589E4,-6.230103E3,-1.0686376E3,3.6758333E3],"categories":[],"categories_nodes":[],"categories_segments":[],"categories_sizes":[],"default_left":[0,0,0,0,0,0,0,0,0,0,0],"id":48,"left_children":[1,3,5,7,9,-1,-1,-1,-1,-1,-1],"loss_changes":[1.9679779E12,1.5212993E11,2.1092906E11,5.082566E10,1.2690306E10,0E0,0E0,0E0,0E0,0E0,0E0],"parents":[2147483647,0,0,1,1,2,2,3,3,4,4],"right_children":[2,4,6,8,10,-1,-1,-1,-1,-1,-1],"split_conditions":[3.877984E6,1.300373E6,8.515259E6,8.74255E5,2.764843E6,1.4449755E4,4.0674527E4,-1.3816589E4,-6.230103E3,-1.0686376E3,3.6758333E3],"split_indices":[0,2,0,0,0,0,0,0,0,0,0],"split_type":[0,0,0,0,0,0,0,0,0,0,0],"sum_hessian":[2.5E1,1.9E1,6E0,1.5E1,4E0,5E0,1E0,4E0,1.1E1,2E0,2E0],"tree_param":{"num_deleted":"0","num_feature":"4","num_nodes":"11","size_leaf_vector":"1"}},{"base_weights":[2.4502715E4,-1.3870838E5,4.6400384E5,-1.0232874E4,-8.318327E4,1.3847671E4,3.9657664E4,-8.941607E4,-3.655625E2,-6.4048484E4,-6.785673E3,-4.0223364E3,-1.7420276E3],"categories":[],"categories_nodes":[],"categories_segments":[],"categories_sizes":[],"default_left":[0,0,0,0,0,0,0,0,0,0,0,0,0],"id":49,"left_children":[1,3,5,-1,7,-1,-1,9,-1,11,-1,-1,-1],"loss_changes":[1.8576477E12,5.255073E10,2.1130628E11,0E0,5.0209915E9,0E0,0E0,4.226736E9,0E0,1.5078195E9,0E0,0E0,0E0],"parents":[2147483647,0,0,1,1,2,2,4,4,7,7,9,9],"right_children":[2,4,6,-1,8,-1,-1,10,-1,12,-1,-1,-1],"split_conditions":[2.764843E6,1.066161E6,8.515259E6,-1.0232874E4,1.935678E6,1.3847671E4,3.9657664E4,1.259601E6,-3.655625E2,1.203119E6,-6.785673E3,-4.0223364E3,-1.7420276E3],"split_indices":[0,1,0,0,0,0,0,0,0,3,0,0,0],"split_type":[0,0,0,0,0,0,0,0,0,0,0,0,0],"sum_hessian":[2.4E1,1.8E1,6E0,7E0,1.1E1,5E0,1E0,1E1,1E0,8E0,2E0,4E0,4E0],"tree_param":{"num_deleted":"0","num_feature":"4","num_nodes":"13","size_leaf_vector":"1"}},{"base_weights":[4.7460734E4,-1.26122125E5,5.614292E5,-1.521131E5,8.0528086E4,1.3979065E4,4.2201637E4,-1.2338002E4,-5.947215E3,1.1751937E3,4.8644126E3],"categories":[],"categories_nodes":[],"categories_segments":[],"categories_sizes":[],"default_left":[0,0,0,0,0,0,0,0,0,0,0],"id":50,"left_children":[1,3,5,7,9,-1,-1,-1,-1,-1,-1],"loss_changes":[2.4796437E12,1.2504125E11,3.2158253E11,3.0296474E10,5.8055475E8,0E0,0E0,0E0,0E0,0E0,0E0],"parents":[2147483647,0,0,1,1,2,2,3,3,4,4],"right_children":[2,4,6,8,10,-1,-1,-1,-1,-1,-1],"split_conditions":[3.877984E6,1.527953E6,7.510364E6,8.22735E5,2.764843E6,1.3979065E4,4.2201637E4,-1.2338002E4,-5.947215E3,1.1751937E3,4.8644126E3],"split_indices":[1,1,1,1,1,0,0,0,0,0,0],"split_type":[0,0,0,0,0,0,0,0,0,0,0],"sum_hessian":[2.6E1,2E1,6E0,1.8E1,2E0,4E0,2E0,3E0,1.5E1,1E0,1E0],"tree_param":{"num_deleted":"0","num_feature":"4","num_nodes":"11","size_leaf_vector":"1"}},{"base_weights":[4.605411E4,-9.448033E4,5.413836E5,-1.4879028E5,1.8602973E4,1.3419905E4,4.0794918E4,-1.1511802E4,-5.74461E3,-3.362475E4,9.229381E4,-3.5540627E1,-4.0065375E4,1.1458125E3,5.389046E3,-2.3111829E3,-3.8580624E2],"categories":[],"categories_nodes":[],"categories_segments":[],"categories_sizes":[],"default_left":[0,0,0,0,0,0,0,0,0,0,0,0,0,0,0,0,0],"id":51,"left_children":[1,3,5,7,9,-1,-1,-1,-1,11,13,-1,15,-1,-1,-1,-1],"loss_changes":[2.2090867E12,1.5630667E11,3.0558428E11,2.0482228E10,3.77417E10,0E0,0E0,0E0,0E0,1.2434391E9,1.8278953E9,0E0,6.394117E8,0E0,0E0,0E0,0E0],"parents":[2147483647,0,0,1,1,2,2,3,3,4,4,9,9,10,10,12,12],"right_children":[2,4,6,8,10,-1,-1,-1,-1,12,14,-1,16,-1,-1,-1,-1],"split_conditions":[4.754295E6,1.224185E6,7.510364E6,8.74255E5,2.764843E6,1.3419905E4,4.0794918E4,-1.1511802E4,-5.74461E3,1.103762E6,3.353134E6,-3.5540627E1,2.257122E6,1.1458125E3,5.389046E3,-2.3111829E3,-3.8580624E2],"split_indices":[0,3,1,0,0,0,0,0,0,1,0,0,0,0,0,0,0],"split_type":[0,0,0,0,0,0,0,0,0,0,0,0,0,0,0,0,0],"sum_hessian":[3E1,2.4E1,6E0,1.6E1,8E0,4E0,2E0,3E0,1.3E1,5E0,3E0,1E0,4E0,1E0,2E0,3E0,1E0],"tree_param":{"num_deleted":"0","num_feature":"4","num_nodes":"17","size_leaf_vector":"1"}},{"base_weights":[5.107662E4,-8.842154E4,5.2205934E5,-1.2321609E5,6.8441E4,1.28831045E4,3.9435086E4,-9.314657E3,-8.977087E4,9.880083E3,5.2094126E3,-4.869175E3,-2.2245142E3,-3.761625E2,1.1171688E3],"categories":[],"categories_nodes":[],"categories_segments":[],"categories_sizes":[],"default_left":[0,0,0,0,0,0,0,0,0,0,0,0,0,0,0],"id":52,"left_children":[1,3,5,7,9,-1,-1,-1,11,13,-1,-1,-1,-1,-1],"loss_changes":[2.0171981E12,1.3942414E11,2.902777E11,2.546883E10,9.437569E9,0E0,0E0,0E0,8.379515E8,8.188032E8,0E0,0E0,0E0,0E0,0E0],"parents":[2147483647,0,0,1,1,2,2,3,3,4,4,8,8,9,9],"right_children":[2,4,6,8,10,-1,-1,-1,12,14,-1,-1,-1,-1,-1],"split_conditions":[4.754295E6,2.257122E6,7.51128E6,9.89211E5,3.353134E6,1.28831045E4,3.9435086E4,-9.314657E3,1.2649954E6,2.764843E6,5.2094126E3,-4.869175E3,-2.2245142E3,-3.761625E2,1.1171688E3],"split_indices":[0,0,2,0,0,0,0,0,3,0,0,0,0,0,0],"split_type":[0,0,0,0,0,0,0,0,0,0,0,0,0,0,0],"sum_hessian":[2.9E1,2.3E1,6E0,1.9E1,4E0,4E0,2E0,5E0,1.4E1,2E0,2E0,1.1E1,3E0,1E0,1E0],"tree_param":{"num_deleted":"0","num_feature":"4","num_nodes":"15","size_leaf_vector":"1"}},{"base_weights":[6.49695E4,-8.427795E4,5.034305E5,-1.0905173E5,5.0357627E3,1.2367785E4,3.8120586E4,-6.0980195E3,-3.0154125E4,-1.7657709E3,-3.6675626E2],"categories":[],"categories_nodes":[],"categories_segments":[],"categories_sizes":[],"default_left":[0,0,0,0,0,0,0,0,0,0,0],"id":53,"left_children":[1,3,5,7,-1,-1,-1,-1,9,-1,-1],"loss_changes":[1.8092862E12,1.0722576E11,2.7564284E11,1.567318E10,0E0,0E0,0E0,0E0,2.1205914E8,0E0,0E0],"parents":[2147483647,0,0,1,1,2,2,3,3,8,8],"right_children":[2,4,6,8,-1,-1,-1,-1,10,-1,-1],"split_conditions":[4.754295E6,2.764843E6,7.51128E6,1.330538E6,5.0357627E3,1.2367785E4,3.8120586E4,-6.0980195E3,2.257122E6,-1.7657709E3,-3.6675626E2],"split_indices":[0,0,2,2,0,0,0,0,0,0,0],"split_type":[0,0,0,0,0,0,0,0,0,0,0],"sum_hessian":[2.6E1,2E1,6E0,1.8E1,2E0,4E0,2E0,1.5E1,3E0,2E0,1E0],"tree_param":{"num_deleted":"0","num_feature":"4","num_nodes":"11","size_leaf_vector":"1"}},{"base_weights":[8.0467766E4,-1.017506E5,4.854715E5,-1.3147292E5,7.0870414E4,1.1873065E4,3.6849902E4,-1.0502138E4,-4.5474995E3,9.6334375E2,4.3519375E3],"categories":[],"categories_nodes":[],"categories_segments":[],"categories_sizes":[],"default_left":[0,0,0,0,0,0,0,0,0,0,0],"id":54,"left_children":[1,3,5,7,9,-1,-1,-1,-1,-1,-1],"loss_changes":[1.6729776E12,9.140868E10,2.616593E11,2.5470943E10,8.260649E8,0E0,0E0,0E0,0E0,0E0,0E0],"parents":[2147483647,0,0,1,1,2,2,3,3,4,4],"right_children":[2,4,6,8,10,-1,-1,-1,-1,-1,-1],"split_conditions":[4.754295E6,2.257122E6,7.51128E6,8.74255E5,3.353134E6,1.1873065E4,3.6849902E4,-1.0502138E4,-4.5474995E3,9.6334375E2,4.3519375E3],"split_indices":[0,0,2,0,0,0,0,0,0,0,0],"split_type":[0,0,0,0,0,0,0,0,0,0,0],"sum_hessian":[2.1E1,1.5E1,6E0,1.3E1,2E0,4E0,2E0,3E0,1E1,1E0,1E0],"tree_param":{"num_deleted":"0","num_feature":"4","num_nodes":"11","size_leaf_vector":"1"}},{"base_weights":[3.975241E4,-9.83655E4,4.6815834E5,-1.3442927E5,2.0209416E4,1.13981455E4,3.5621566E4,-1.0864029E4,-4.6111333E3,-7.489625E3,2.52025E3,3.532125E2,-7.347834E2],"categories":[],"categories_nodes":[],"categories_segments":[],"categories_sizes":[],"default_left":[0,0,0,0,0,0,0,0,0,0,0,0,0],"id":55,"left_children":[1,3,5,7,9,-1,-1,-1,-1,11,-1,-1,-1],"loss_changes":[1.7028256E12,9.679443E10,2.4830476E11,3.940863E10,5.3958467E9,0E0,0E0,0E0,0E0,5.233172E8,0E0,0E0,0E0],"parents":[2147483647,0,0,1,1,2,2,3,3,4,4,9,9],"right_children":[2,4,6,8,10,-1,-1,-1,-1,12,-1,-1,-1],"split_conditions":[3.353134E6,1.224185E6,7.510364E6,8.22735E5,2.257122E6,1.13981455E4,3.5621566E4,-1.0864029E4,-4.6111333E3,1.103762E6,2.52025E3,3.532125E2,-7.347834E2],"split_indices":[1,3,1,1,1,0,0,0,0,1,0,0,0],"split_type":[0,0,0,0,0,0,0,0,0,0,0,0,0],"sum_hessian":[2.7E1,2.1E1,6E0,1.6E1,5E0,4E0,2E0,4E0,1.2E1,3E0,2E0,1E0,2E0],"tree_param":{"num_deleted":"0","num_feature":"4","num_nodes":"13","size_leaf_vector":"1"}},{"base_weights":[4.465614E4,-7.630379E4,3.665965E5,-6.038888E3,-1.3468514E4,1.0437917E4,3.2840637E4,-3.819873E4,2.4362417E3,-5.2294688E3,-6.1618312E4,3.4438126E2,-5.7821875E2,-3.8656875E3,-3.6330002E2],"categories":[],"categories_nodes":[],"categories_segments":[],"categories_sizes":[],"default_left":[0,0,0,0,0,0,0,0,0,0,0,0,0,0,0],"id":56,"left_children":[1,3,5,-1,7,-1,-1,9,-1,11,13,-1,-1,-1,-1],"loss_changes":[1.0015197E12,5.1469435E10,1.8353527E11,0E0,1.5703722E10,0E0,0E0,5.0826537E9,0E0,3.866937E8,2.8505723E9,0E0,0E0,0E0,0E0],"parents":[2147483647,0,0,1,1,2,2,4,4,7,7,9,9,10,10],"right_children":[2,4,6,-1,8,-1,-1,10,-1,12,14,-1,-1,-1,-1],"split_conditions":[3.353134E6,1.2180676E6,7.510364E6,-6.038888E3,2.257122E6,1.0437917E4,3.2840637E4,1.243675E6,2.4362417E3,1.103762E6,1.935678E6,3.4438126E2,-5.7821875E2,-3.8656875E3,-3.6330002E2],"split_indices":[1,3,1,0,1,0,0,1,0,1,1,0,0,0,0],"split_type":[0,0,0,0,0,0,0,0,0,0,0,0,0,0,0],"sum_hessian":[2.4E1,1.8E1,6E0,1E1,8E0,5E0,1E0,6E0,2E0,3E0,3E0,1E0,2E0,2E0,1E0],"tree_param":{"num_deleted":"0","num_feature":"4","num_nodes":"15","size_leaf_vector":"1"}},{"base_weights":[-1.0418587E4,-8.620021E4,5.2352566E5,-1.1712314E5,7.4503E4,7.2448003E3,3.2019625E4,-1.0187914E4,-3.890804E3,8.1535004E2,4.4233003E3],"categories":[],"categories_nodes":[],"categories_segments":[],"categories_sizes":[],"default_left":[0,0,0,0,0,0,0,0,0,0,0],"id":57,"left_children":[1,3,5,7,9,-1,-1,-1,-1,-1,-1],"loss_changes":[9.7578084E11,1.1308373E11,3.995743E10,4.5441008E10,1.8077491E9,0E0,0E0,0E0,0E0,0E0,0E0],"parents":[2147483647,0,0,1,1,2,2,3,3,4,4],"right_children":[2,4,6,8,10,-1,-1,-1,-1,-1,-1],"split_conditions":[6.73756E6,2.257122E6,7.510364E6,8.74255E5,3.353134E6,7.2448003E3,3.2019625E4,-1.0187914E4,-3.890804E3,8.1535004E2,4.4233003E3],"split_indices":[0,0,0,0,0,0,0,0,0,0,0],"split_type":[0,0,0,0,0,0,0,0,0,0,0],"sum_hessian":[2.2E1,2E1,2E0,1.7E1,3E0,1E0,1E0,4E0,1.3E1,1E0,2E0],"tree_param":{"num_deleted":"0","num_feature":"4","num_nodes":"11","size_leaf_vector":"1"}},{"base_weights":[3.0154455E4,-5.852949E4,5.547195E5,-1.1019901E5,1.14845586E5,7.0636753E3,3.2272186E4,-9.842142E3,-8.165062E4,7.9496875E2,6.5727476E3,-4.275978E3,-5.9041254E2],"categories":[],"categories_nodes":[],"categories_segments":[],"categories_sizes":[],"default_left":[0,0,0,0,0,0,0,0,0,0,0,0,0],"id":58,"left_children":[1,3,5,7,9,-1,-1,-1,11,-1,-1,-1,-1],"loss_changes":[1.288521E12,2.2765286E11,5.885408E10,3.0924947E10,7.7705544E9,0E0,0E0,0E0,3.3136312E9,0E0,0E0,0E0,0E0],"parents":[2147483647,0,0,1,1,2,2,3,3,4,4,8,8],"right_children":[2,4,6,8,10,-1,-1,-1,12,-1,-1,-1,-1],"split_conditions":[5.80035E6,1.527953E6,6.73756E6,7.54725E5,2.764843E6,7.0636753E3,3.2272186E4,-9.842142E3,1.330538E6,7.9496875E2,6.5727476E3,-4.275978E3,-5.9041254E2],"split_indices":[1,1,1,1,1,0,0,0,2,0,0,0,0],"split_type":[0,0,0,0,0,0,0,0,0,0,0,0,0],"sum_hessian":[2.6E1,2.3E1,3E0,1.8E1,5E0,1E0,2E0,3E0,1.5E1,1E0,4E0,1.4E1,1E0],"tree_param":{"num_deleted":"0","num_feature":"4","num_nodes":"13","size_leaf_vector":"1"}},{"base_weights":[3.169607E4,-6.032322E4,4.854533E5,-9.139923E4,8.226065E4,9.257991E3,3.1196451E4,-9.473062E3,-6.452993E4,7.7509375E2,4.7537437E3,-4.1898374E3,-4.465134E4,-8.866232E2,-3.670375E3],"categories":[],"categories_nodes":[],"categories_segments":[],"categories_sizes":[],"default_left":[0,0,0,0,0,0,0,0,0,0,0,0,0,0,0],"id":59,"left_children":[1,3,5,7,9,-1,-1,-1,11,-1,-1,-1,13,-1,-1],"loss_changes":[1.2401621E12,1.1829199E11,9.239016E10,4.3106075E10,2.8034703E9,0E0,0E0,0E0,3.1523144E9,0E0,0E0,0E0,7.21322E9,0E0,0E0],"parents":[2147483647,0,0,1,1,2,2,3,3,4,4,8,8,12,12],"right_children":[2,4,6,8,10,-1,-1,-1,12,-1,-1,-1,14,-1,-1],"split_conditions":[6.73756E6,2.764843E6,7.510364E6,7.83807E5,3.353134E6,9.257991E3,3.1196451E4,-9.473062E3,1.144833E6,7.7509375E2,4.7537437E3,-4.1898374E3,1.243675E6,-8.866232E2,-3.670375E3],"split_indices":[0,0,1,0,0,0,0,0,3,0,0,0,1,0,0],"split_type":[0,0,0,0,0,0,0,0,0,0,0,0,0,0,0],"sum_hessian":[2.8E1,2.4E1,4E0,2E1,4E0,2E0,2E0,3E0,1.7E1,1E0,3E0,7E0,1E1,6E0,4E0],"tree_param":{"num_deleted":"0","num_feature":"4","num_nodes":"15","size_leaf_vector":"1"}},{"base_weights":[4.9963082E4,-4.1738355E4,5.1890488E5,-7.4869E4,7.92535E4,6.6556377E3,3.0156566E4,-6.084853E3,-4.5215887E4,7.5571875E2,4.5754844E3,-2.189409E4,-6.4888668E4,-2.4160603E3,-8.2950005E1,-3.772235E3,-3.027125E2],"categories":[],"categories_nodes":[],"categories_segments":[],"categories_sizes":[],"default_left":[0,0,0,0,0,0,0,0,0,0,0,0,0,0,0,0,0],"id":60,"left_children":[1,3,5,7,9,-1,-1,-1,11,-1,-1,13,15,-1,-1,-1,-1],"loss_changes":[1.0537216E12,9.011293E10,4.9691165E10,1.8103517E10,2.5473946E9,0E0,0E0,0E0,4.0849777E9,0E0,0E0,3.663121E9,3.269585E9,0E0,0E0,0E0,0E0],"parents":[2147483647,0,0,1,1,2,2,3,3,4,4,8,8,11,11,12,12],"right_children":[2,4,6,8,10,-1,-1,-1,12,-1,-1,14,16,-1,-1,-1,-1],"split_conditions":[6.73756E6,2.764843E6,7.510364E6,1.066161E6,3.353134E6,6.6556377E3,3.0156566E4,-6.084853E3,1.243675E6,7.5571875E2,4.5754844E3,1.092482E6,2.257122E6,-2.4160603E3,-8.2950005E1,-3.772235E3,-3.027125E2],"split_indices":[0,0,0,0,0,0,0,0,1,0,0,1,0,0,0,0,0],"split_type":[0,0,0,0,0,0,0,0,0,0,0,0,0,0,0,0,0],"sum_hessian":[2.3E1,2E1,3E0,1.6E1,4E0,1E0,2E0,5E0,1.1E1,1E0,3E0,6E0,5E0,2E0,4E0,4E0,1E0],"tree_param":{"num_deleted":"0","num_feature":"4","num_nodes":"17","size_leaf_vector":"1"}},{"base_weights":[2.2311014E4,-7.160152E4,4.498465E5,-1.1204526E5,6.166325E4,8.335858E3,2.915135E4,-8.872888E3,-8.068042E4,5.8890835E3,4.4039033E3,-4.2116914E3,-8.6215314E2,-2.9514377E2,7.36825E2],"categories":[],"categories_nodes":[],"categories_segments":[],"categories_sizes":[],"default_left":[0,0,0,0,0,0,0,0,0,0,0,0,0,0,0],"id":61,"left_children":[1,3,5,7,9,-1,-1,-1,11,13,-1,-1,-1,-1,-1],"loss_changes":[1.1162852E12,1.3087275E11,9.133595E10,2.2612394E10,8.320887E9,0E0,0E0,0E0,1.7034117E9,3.9997283E8,0E0,0E0,0E0,0E0,0E0],"parents":[2147483647,0,0,1,1,2,2,3,3,4,4,8,8,9,9],"right_children":[2,4,6,8,10,-1,-1,-1,12,14,-1,-1,-1,-1,-1],"split_conditions":[6.73756E6,1.935678E6,7.51128E6,8.74255E5,3.353134E6,8.335858E3,2.915135E4,-8.872888E3,1.2649954E6,2.764843E6,4.4039033E3,-4.2116914E3,-8.6215314E2,-2.9514377E2,7.36825E2],"split_indices":[0,0,2,0,0,0,0,0,3,0,0,0,0,0,0],"split_type":[0,0,0,0,0,0,0,0,0,0,0,0,0,0,0],"sum_hessian":[2.6E1,2.2E1,4E0,1.7E1,5E0,2E0,2E0,4E0,1.3E1,2E0,3E0,1.2E1,1E0,1E0,1E0],"tree_param":{"num_deleted":"0","num_feature":"4","num_nodes":"15","size_leaf_vector":"1"}},{"base_weights":[2.2618617E4,-6.798064E4,4.348515E5,-9.662748E4,5.447345E4,8.0579917E3,2.8179635E4,-8.556906E3,-3.5980298E3,5.7419165E3,4.2523584E3,-2.877625E2,7.1840625E2],"categories":[],"categories_nodes":[],"categories_segments":[],"categories_sizes":[],"default_left":[0,0,0,0,0,0,0,0,0,0,0,0,0],"id":62,"left_children":[1,3,5,7,9,-1,-1,-1,-1,11,-1,-1,-1],"loss_changes":[1.0379574E12,8.594583E10,8.534832E10,2.2605758E10,6.961187E9,0E0,0E0,0E0,0E0,3.80223E8,0E0,0E0,0E0],"parents":[2147483647,0,0,1,1,2,2,3,3,4,4,9,9],"right_children":[2,4,6,8,10,-1,-1,-1,-1,12,-1,-1,-1],"split_conditions":[6.73756E6,2.257122E6,7.51128E6,7.83807E5,3.353134E6,8.0579917E3,2.8179635E4,-8.556906E3,-3.5980298E3,2.764843E6,4.2523584E3,-2.877625E2,7.1840625E2],"split_indices":[0,0,2,0,0,0,0,0,0,0,0,0,0],"split_type":[0,0,0,0,0,0,0,0,0,0,0,0,0],"sum_hessian":[2.6E1,2.2E1,4E0,1.8E1,4E0,2E0,2E0,3E0,1.5E1,2E0,2E0,1E0,1E0],"tree_param":{"num_deleted":"0","num_feature":"4","num_nodes":"13","size_leaf_vector":"1"}},{"base_weights":[4.0350934E4,-7.065431E4,3.5174434E5,-9.414576E4,4.6847938E4,8.277915E3,2.7240316E4,-8.236023E3,-6.725686E4,-2.8056876E2,3.310242E3,-7.217521E4,-1.258225E3,-2.5696824E3,-5.044497E3],"categories":[],"categories_nodes":[],"categories_segments":[],"categories_sizes":[],"default_left":[0,0,0,0,0,0,0,0,0,0,0,0,0,0,0],"id":63,"left_children":[1,3,5,7,9,-1,-1,-1,11,-1,-1,13,-1,-1,-1],"loss_changes":[9.235761E11,5.96165E10,1.6142094E11,2.1181923E10,4.4332984E9,0E0,0E0,0E0,1.0821018E9,0E0,0E0,1.9757425E9,0E0,0E0,0E0],"parents":[2147483647,0,0,1,1,2,2,3,3,4,4,8,8,11,11],"right_children":[2,4,6,8,10,-1,-1,-1,12,-1,-1,14,-1,-1,-1],"split_conditions":[4.754295E6,2.257122E6,7.510364E6,7.83807E5,2.764843E6,8.277915E3,2.7240316E4,-8.236023E3,1.2649954E6,-2.8056876E2,3.310242E3,1.180097E6,-1.258225E3,-2.5696824E3,-5.044497E3],"split_indices":[0,0,1,0,0,0,0,0,3,0,0,1,0,0,0],"split_type":[0,0,0,0,0,0,0,0,0,0,0,0,0,0,0],"sum_hessian":[2.5E1,1.9E1,6E0,1.6E1,3E0,4E0,2E0,3E0,1.3E1,1E0,2E0,1.1E1,2E0,8E0,3E0],"tree_param":{"num_deleted":"0","num_feature":"4","num_nodes":"15","size_leaf_vector":"1"}},{"base_weights":[5.0412355E4,-3.276759E4,4.53709E5,-1.1744062E5,4.718676E4,5.87245E3,2.63323E4,-7.9525093E3,-3.1596272E3,-2.4016965E3,5.3586626E3,1.1307906E4,-7.7554376E2,-3.0034376E1,7.7388336E2],"categories":[],"categories_nodes":[],"categories_segments":[],"categories_sizes":[],"default_left":[0,0,0,0,0,0,0,0,0,0,0,0,0,0,0],"id":64,"left_children":[1,3,5,7,9,-1,-1,-1,-1,11,-1,13,-1,-1,-1],"loss_changes":[7.864294E11,1.4094118E11,3.6249207E10,1.2521603E10,3.2978412E10,0E0,0E0,0E0,0E0,1.433447E9,0E0,2.0792118E8,0E0,0E0,0E0],"parents":[2147483647,0,0,1,1,2,2,3,3,4,4,9,9,11,11],"right_children":[2,4,6,8,10,-1,-1,-1,-1,12,-1,14,-1,-1,-1],"split_conditions":[6.73756E6,1.069662E6,7.510364E6,8.74255E5,2.764843E6,5.87245E3,2.63323E4,-7.9525093E3,-3.1596272E3,1.187036E6,5.3586626E3,1.116531E6,-7.7554376E2,-3.0034376E1,7.7388336E2],"split_indices":[0,2,0,0,0,0,0,0,0,2,0,0,0,0,0],"split_type":[0,0,0,0,0,0,0,0,0,0,0,0,0,0,0],"sum_hessian":[2.2E1,1.9E1,3E0,9E0,1E1,1E0,2E0,4E0,5E0,6E0,4E0,3E0,3E0,1E0,2E0],"tree_param":{"num_deleted":"0","num_feature":"4","num_nodes":"15","size_leaf_vector":"1"}}]},"name":"gbtree"},"learner_model_param":{"base_score":"2.6670168E6","boost_from_average":"1","num_class":"0","num_feature":"4","num_target":"1"},"objective":{"name":"reg:squarederror","reg_loss_param":{"scale_pos_weight":"1"}}},"version":[2,1,2]}